digraph Tree {
0 [label="X[10] <= 1.5000\ngini = 0.72\nsamples = 5", shape="box"] ;
1 [label="gini = 0.0000\nsamples = 2\nvalue = [ 0.  2.  0.  0.]", shape="box"] ;
0 -> 1 ;
2 [label="X[1] <= 1.5000\ngini = 0.666666666667\nsamples = 3", shape="box"] ;
0 -> 2 ;
3 [label="X[3] <= 1.5000\ngini = 0.5\nsamples = 2", shape="box"] ;
2 -> 3 ;
4 [label="gini = 0.0000\nsamples = 1\nvalue = [ 1.  0.  0.  0.]", shape="box"] ;
3 -> 4 ;
5 [label="gini = 0.0000\nsamples = 1\nvalue = [ 0.  0.  1.  0.]", shape="box"] ;
3 -> 5 ;
6 [label="gini = 0.0000\nsamples = 1\nvalue = [ 0.  0.  0.  1.]", shape="box"] ;
2 -> 6 ;
}